digraph Tree {
node [shape=box] ;
0 [label="X[1] <= 0.8275\ngini = 0.4444\nsamples = 96\nvalue = [32, 64]"] ;
1 [label="X[0] <= 0.1982\ngini = 0.4857\nsamples = 77\nvalue = [32, 45]"] ;
0 -> 1 [labeldistance=2.5, labelangle=45, headlabel="True"] ;
2 [label="gini = 0.0\nsamples = 15\nvalue = [0, 15]"] ;
1 -> 2 ;
3 [label="X[1] <= 0.4415\ngini = 0.4995\nsamples = 62\nvalue = [32, 30]"] ;
1 -> 3 ;
4 [label="X[0] <= 0.5991\ngini = 0.3995\nsamples = 29\nvalue = [8, 21]"] ;
3 -> 4 ;
5 [label="gini = 0.0\nsamples = 13\nvalue = [0, 13]"] ;
4 -> 5 ;
6 [label="X[0] <= 0.735\ngini = 0.5\nsamples = 16\nvalue = [8, 8]"] ;
4 -> 6 ;
7 [label="gini = 0.0\nsamples = 7\nvalue = [7, 0]"] ;
6 -> 7 ;
8 [label="X[0] <= 0.8145\ngini = 0.1975\nsamples = 9\nvalue = [1, 8]"] ;
6 -> 8 ;
9 [label="X[1] <= 0.2281\ngini = 0.5\nsamples = 2\nvalue = [1, 1]"] ;
8 -> 9 ;
10 [label="gini = 0.0\nsamples = 1\nvalue = [0, 1]"] ;
9 -> 10 ;
11 [label="gini = 0.0\nsamples = 1\nvalue = [1, 0]"] ;
9 -> 11 ;
12 [label="gini = 0.0\nsamples = 7\nvalue = [0, 7]"] ;
8 -> 12 ;
13 [label="X[0] <= 0.424\ngini = 0.3967\nsamples = 33\nvalue = [24, 9]"] ;
3 -> 13 ;
14 [label="gini = 0.0\nsamples = 16\nvalue = [16, 0]"] ;
13 -> 14 ;
15 [label="X[0] <= 0.659\ngini = 0.4983\nsamples = 17\nvalue = [8, 9]"] ;
13 -> 15 ;
16 [label="gini = 0.0\nsamples = 7\nvalue = [0, 7]"] ;
15 -> 16 ;
17 [label="X[0] <= 0.8399\ngini = 0.32\nsamples = 10\nvalue = [8, 2]"] ;
15 -> 17 ;
18 [label="gini = 0.0\nsamples = 8\nvalue = [8, 0]"] ;
17 -> 18 ;
19 [label="gini = 0.0\nsamples = 2\nvalue = [0, 2]"] ;
17 -> 19 ;
20 [label="gini = 0.0\nsamples = 19\nvalue = [0, 19]"] ;
0 -> 20 [labeldistance=2.5, labelangle=-45, headlabel="False"] ;
}